svm_type c_svc
kernel_type rbf
gamma 0.076923076923076927
nr_class 2
total_sv 107
rho 0.16674445338877675
label 1 -1
nr_sv 48 59
SV
1 1:12.86 2:1.35 3:2.32 4:18 5:122 6:1.51 7:1.25 8:0.21 9:0.94 10:4.1 11:0.76 12:1.29 13:630 
1 1:12.88 2:2.99 3:2.4 4:20 5:104 6:1.3 7:1.22 8:0.24 9:0.83 10:5.4 11:0.74 12:1.42 13:530 
0.99548385256209604 1:12.81 2:2.31 3:2.4 4:24 5:98 6:1.15 7:1.09 8:0.27 9:0.83 10:5.7 11:0.66 12:1.36 13:560 
1 1:12.7 2:3.55 3:2.36 4:21.5 5:106 6:1.7 7:1.2 8:0.17 9:0.84 10:5 11:0.78 12:1.29 13:600 
1 1:12.51 2:1.24 3:2.25 4:17.5 5:85 6:2 7:0.58 8:0.6 9:1.25 10:5.45 11:0.75 12:1.51 13:650 
1 1:12.6 2:2.46 3:2.2 4:18.5 5:94 6:1.62 7:0.66 8:0.63 9:0.94 10:7.1 11:0.73 12:1.58 13:695 
1 1:12.25 2:4.72 3:2.54 4:21 5:89 6:1.38 7:0.47 8:0.53 9:0.8 10:3.85 11:0.75 12:1.27 13:720 
1 1:12.53 2:5.51 3:2.64 4:25 5:96 6:1.79 7:0.6 8:0.63 9:1.1 10:5 11:0.82 12:1.69 13:515 
1 1:13.49 2:3.59 3:2.19 4:19.5 5:88 6:1.62 7:0.48 8:0.58 9:0.88 10:5.7 11:0.81 12:1.82 13:580 
1 1:12.84 2:2.96 3:2.61 4:24 5:101 6:2.32 7:0.6 8:0.53 9:0.81 10:4.92 11:0.89 12:2.15 13:590 
1 1:12.93 2:2.81 3:2.7 4:21 5:96 6:1.54 7:0.5 8:0.53 9:0.75 10:4.6 11:0.77 12:2.31 13:600 
1 1:13.36 2:2.56 3:2.35 4:20 5:89 6:1.4 7:0.5 8:0.37 9:0.64 10:5.6 11:0.7 12:2.47 13:780 
1 1:13.52 2:3.17 3:2.72 4:23.5 5:97 6:1.55 7:0.52 8:0.5 9:0.55 10:4.35 11:0.89 12:2.06 13:520 
1 1:13.62 2:4.95 3:2.35 4:20 5:92 6:2 7:0.8 8:0.47 9:1.02 10:4.4 11:0.91 12:2.05 13:550 
1 1:12.25 2:3.88 3:2.2 4:18.5 5:112 6:1.38 7:0.78 8:0.29 9:1.14 10:8.21 11:0.65 12:2 13:855 
1 1:13.16 2:3.57 3:2.15 4:21 5:102 6:1.5 7:0.55 8:0.43 9:1.3 10:4 11:0.6 12:1.68 13:830 
1 1:13.88 2:5.04 3:2.23 4:20 5:80 6:0.98 7:0.34 8:0.4 9:0.68 10:4.9 11:0.58 12:1.33 13:415 
1 1:12.87 2:4.61 3:2.48 4:21.5 5:86 6:1.7 7:0.65 8:0.47 9:0.86 10:7.65 11:0.54 12:1.86 13:625 
1 1:13.32 2:3.24 3:2.38 4:21.5 5:92 6:1.93 7:0.76 8:0.45 9:1.25 10:8.42 11:0.55 12:1.62 13:650 
1 1:13.08 2:3.9 3:2.36 4:21.5 5:113 6:1.41 7:1.39 8:0.34 9:1.14 10:9.4 11:0.57 12:1.33 13:550 
1 1:13.5 2:3.12 3:2.62 4:24 5:123 6:1.4 7:1.57 8:0.22 9:1.25 10:8.6 11:0.59 12:1.3 13:500 
1 1:12.79 2:2.67 3:2.48 4:22 5:112 6:1.48 7:1.36 8:0.24 9:1.26 10:10.8 11:0.48 12:1.47 13:480 
1 1:13.11 2:1.9 3:2.75 4:25.5 5:116 6:2.2 7:1.28 8:0.26 9:1.56 10:7.1 11:0.61 12:1.33 13:425 
1 1:13.23 2:3.3 3:2.28 4:18.5 5:98 6:1.8 7:0.83 8:0.61 9:1.87 10:10.52 11:0.56 12:1.51 13:675 
1 1:12.58 2:1.29 3:2.1 4:20 5:103 6:1.48 7:0.58 8:0.53 9:1.4 10:7.6 11:0.58 12:1.55 13:640 
1 1:13.17 2:5.19 3:2.32 4:22 5:93 6:1.74 7:0.63 8:0.61 9:1.55 10:7.9 11:0.6 12:1.48 13:725 
1 1:13.84 2:4.12 3:2.38 4:19.5 5:89 6:1.8 7:0.83 8:0.48 9:1.56 10:9.01 11:0.57 12:1.64 13:480 
1 1:12.45 2:3.03 3:2.64 4:27 5:97 6:1.9 7:0.58 8:0.63 9:1.14 10:7.5 11:0.67 12:1.73 13:880 
1 1:14.34 2:1.68 3:2.7 4:25 5:98 6:2.8 7:1.31 8:0.53 9:2.7 10:13 11:0.57 12:1.96 13:660 
1 1:13.48 2:1.67 3:2.64 4:22.5 5:89 6:2.6 7:1.1 8:0.52 9:2.29 10:11.75 11:0.57 12:1.78 13:620 
0.73313755537121605 1:12.36 2:3.83 3:2.38 4:21 5:88 6:2.3 7:0.92 8:0.5 9:1.04 10:7.65 11:0.56 12:1.58 13:520 
1 1:13.69 2:3.26 3:2.54 4:20 5:107 6:1.83 7:0.56 8:0.5 9:0.8 10:5.88 11:0.96 12:1.82 13:680 
1 1:12.85 2:3.27 3:2.58 4:22 5:106 6:1.65 7:0.6 8:0.6 9:0.96 10:5.58 11:0.87 12:2.11 13:570 
1 1:12.96 2:3.45 3:2.35 4:18.5 5:106 6:1.39 7:0.7 8:0.4 9:0.94 10:5.28 11:0.68 12:1.75 13:675 
1 1:13.78 2:2.76 3:2.3 4:22 5:90 6:1.35 7:0.68 8:0.41 9:1.03 10:9.58 11:0.7 12:1.68 13:615 
0.73092692039307872 1:13.73 2:4.36 3:2.26 4:22.5 5:88 6:1.28 7:0.47 8:0.52 9:1.15 10:6.62 11:0.78 12:1.75 13:520 
1 1:13.45 2:3.7 3:2.6 4:23 5:111 6:1.7 7:0.92 8:0.43 9:1.46 10:10.68 11:0.85 12:1.56 13:695 
1 1:12.82 2:3.37 3:2.3 4:19.5 5:88 6:1.48 7:0.66 8:0.4 9:0.97 10:10.26 11:0.72 12:1.75 13:685 
0.88873840660983583 1:13.58 2:2.58 3:2.69 4:24.5 5:105 6:1.55 7:0.84 8:0.39 9:1.54 10:8.66 11:0.74 12:1.8 13:750 
1 1:13.4 2:4.6 3:2.86 4:25 5:112 6:1.98 7:0.96 8:0.27 9:1.11 10:8.5 11:0.67 12:1.92 13:630 
1 1:12.2 2:3.03 3:2.32 4:19 5:96 6:1.25 7:0.49 8:0.4 9:0.73 10:5.5 11:0.66 12:1.83 13:510 
1 1:12.77 2:2.39 3:2.28 4:19.5 5:86 6:1.39 7:0.51 8:0.48 9:0.64 10:9.899999 11:0.57 12:1.63 13:470 
1 1:14.16 2:2.51 3:2.48 4:20 5:91 6:1.68 7:0.7 8:0.44 9:1.24 10:9.7 11:0.62 12:1.71 13:660 
1 1:13.71 2:5.65 3:2.45 4:20.5 5:95 6:1.68 7:0.61 8:0.52 9:1.06 10:7.7 11:0.64 12:1.74 13:740 
0.88817562024989505 1:13.4 2:3.91 3:2.48 4:23 5:102 6:1.8 7:0.75 8:0.43 9:1.41 10:7.3 11:0.7 12:1.56 13:750 
1 1:13.27 2:4.28 3:2.26 4:20 5:120 6:1.59 7:0.69 8:0.43 9:1.35 10:10.2 11:0.59 12:1.56 13:835 
1 1:13.17 2:2.59 3:2.37 4:20 5:120 6:1.65 7:0.68 8:0.53 9:1.46 10:9.3 11:0.6 12:1.62 13:840 
0.99551737153066866 1:14.13 2:4.1 3:2.74 4:24.5 5:96 6:2.05 7:0.76 8:0.56 9:1.35 10:9.2 11:0.61 12:1.6 13:560 
-0.8330336599110707 1:14.23 2:1.71 3:2.43 4:15.6 5:127 6:2.8 7:3.06 8:0.28 9:2.29 10:5.64 11:1.04 12:3.92 13:1065 
-0.81201371547645396 1:13.2 2:1.78 3:2.14 4:11.2 5:100 6:2.65 7:2.76 8:0.26 9:1.28 10:4.38 11:1.05 12:3.4 13:1050 
-0.83308160114728413 1:13.16 2:2.36 3:2.67 4:18.6 5:101 6:2.8 7:3.24 8:0.3 9:2.81 10:5.68 11:1.03 12:3.17 13:1185 
-0.83304260239670058 1:14.37 2:1.95 3:2.5 4:16.8 5:113 6:3.85 7:3.49 8:0.24 9:2.18 10:7.8 11:0.86 12:3.45 13:1480 
-0.83298970572093978 1:13.24 2:2.59 3:2.87 4:21 5:118 6:2.8 7:2.69 8:0.39 9:1.82 10:4.32 11:1.04 12:2.93 13:735 
-0.83306715781395735 1:14.2 2:1.76 3:2.45 4:15.2 5:112 6:3.27 7:3.39 8:0.34 9:1.97 10:6.75 11:1.05 12:2.85 13:1450 
-0.79740165161654186 1:14.39 2:1.87 3:2.45 4:14.6 5:96 6:2.5 7:2.52 8:0.3 9:1.98 10:5.25 11:1.02 12:3.58 13:1290 
-0.83318311848625637 1:14.06 2:2.15 3:2.61 4:17.6 5:121 6:2.6 7:2.51 8:0.31 9:1.25 10:5.05 11:1.06 12:3.58 13:1295 
-0.55299209904269297 1:14.83 2:1.64 3:2.17 4:14 5:97 6:2.8 7:2.98 8:0.29 9:1.98 10:5.2 11:1.08 12:2.85 13:1045 
-0.58352916140649991 1:13.86 2:1.35 3:2.27 4:16 5:98 6:2.98 7:3.15 8:0.22 9:1.85 10:7.22 11:1.01 12:3.55 13:1045 
-0.75440890878290501 1:14.1 2:2.16 3:2.3 4:18 5:105 6:2.95 7:3.32 8:0.22 9:2.38 10:5.75 11:1.25 12:3.17 13:1510 
-0.75077843576066838 1:14.12 2:1.48 3:2.32 4:16.8 5:95 6:2.2 7:2.43 8:0.26 9:1.57 10:5 11:1.17 12:2.82 13:1280 
-0.83328341662761041 1:13.75 2:1.73 3:2.41 4:16 5:89 6:2.6 7:2.76 8:0.29 9:1.81 10:5.6 11:1.15 12:2.9 13:1320 
-0.55073472290309688 1:14.75 2:1.73 3:2.39 4:11.4 5:91 6:3.1 7:3.69 8:0.43 9:2.81 10:5.4 11:1.25 12:2.73 13:1150 
-0.8333927055542486 1:14.38 2:1.87 3:2.38 4:12 5:102 6:3.3 7:3.64 8:0.29 9:2.96 10:7.5 11:1.2 12:3 13:1547 
-0.83295820818147515 1:13.63 2:1.81 3:2.7 4:17.2 5:112 6:2.85 7:2.91 8:0.3 9:1.46 10:7.3 11:1.28 12:2.88 13:1310 
-0.83331886071146277 1:14.3 2:1.92 3:2.72 4:20 5:120 6:2.8 7:3.14 8:0.33 9:1.97 10:6.2 11:1.07 12:2.65 13:1280 
-0.83278078336328643 1:13.83 2:1.57 3:2.62 4:20 5:115 6:2.95 7:3.4 8:0.4 9:1.72 10:6.6 11:1.13 12:2.57 13:1130 
-0.83329330589488793 1:14.19 2:1.59 3:2.48 4:16.5 5:108 6:3.3 7:3.93 8:0.32 9:1.86 10:8.7 11:1.23 12:2.82 13:1680 
-0.8346343720153272 1:13.64 2:3.1 3:2.56 4:15.2 5:116 6:2.7 7:3.03 8:0.17 9:1.66 10:5.1 11:0.96 12:3.36 13:845 
-0.83311783796239536 1:14.06 2:1.63 3:2.28 4:16 5:126 6:3 7:3.17 8:0.24 9:2.1 10:5.65 11:1.09 12:3.71 13:780 
-0.83293656104348612 1:12.93 2:3.8 3:2.65 4:18.6 5:102 6:2.41 7:2.41 8:0.25 9:1.98 10:4.5 11:1.03 12:3.52 13:770 
-0.7419227568379192 1:13.71 2:1.86 3:2.36 4:16.6 5:101 6:2.61 7:2.88 8:0.27 9:1.69 10:3.8 11:1.11 12:4 13:1035 
-0.79806752995646102 1:12.85 2:1.6 3:2.52 4:17.8 5:95 6:2.48 7:2.37 8:0.26 9:1.46 10:3.93 11:1.09 12:3.63 13:1015 
-0.83329212436335753 1:13.5 2:1.81 3:2.61 4:20 5:96 6:2.53 7:2.61 8:0.28 9:1.66 10:3.52 11:1.12 12:3.82 13:845 
-0.83305329913759207 1:13.05 2:2.05 3:3.22 4:25 5:124 6:2.63 7:2.68 8:0.47 9:1.92 10:3.58 11:1.13 12:3.2 13:830 
-0.83311649168830915 1:13.39 2:1.77 3:2.62 4:16.1 5:93 6:2.85 7:2.94 8:0.34 9:1.45 10:4.8 11:0.92 12:3.22 13:1195 
-0.70609470046373068 1:13.3 2:1.72 3:2.14 4:17 5:94 6:2.4 7:2.19 8:0.27 9:1.35 10:3.95 11:1.02 12:2.77 13:1285 
-0.83089264251649197 1:13.87 2:1.9 3:2.8 4:19.4 5:107 6:2.95 7:2.97 8:0.37 9:1.76 10:4.5 11:1.25 12:3.4 13:915 
-0.72119489972440753 1:14.02 2:1.68 3:2.21 4:16 5:96 6:2.65 7:2.33 8:0.26 9:1.98 10:4.7 11:1.04 12:3.59 13:1035 
-0.83012502336940353 1:13.73 2:1.5 3:2.7 4:22.5 5:101 6:3 7:3.25 8:0.29 9:2.38 10:5.7 11:1.19 12:2.71 13:1285 
-0.75440890878290501 1:13.58 2:1.66 3:2.36 4:19.1 5:106 6:2.86 7:3.19 8:0.22 9:1.95 10:6.9 11:1.09 12:2.88 13:1515 
-0.80164044067489848 1:13.68 2:1.83 3:2.36 4:17.2 5:104 6:2.42 7:2.69 8:0.42 9:1.97 10:3.84 11:1.23 12:2.87 13:990 
-0.83333707890282016 1:13.76 2:1.53 3:2.7 4:19.5 5:132 6:2.95 7:2.74 8:0.5 9:1.35 10:5.4 11:1.25 12:3 13:1235 
-0.83304310282105976 1:13.51 2:1.8 3:2.65 4:19 5:110 6:2.35 7:2.53 8:0.29 9:1.54 10:4.2 11:1.1 12:2.87 13:1095 
-0.8310061324373943 1:13.48 2:1.81 3:2.41 4:20.5 5:100 6:2.7 7:2.98 8:0.26 9:1.86 10:5.1 11:1.04 12:3.47 13:920 
-0.79118299445490992 1:13.28 2:1.64 3:2.84 4:15.5 5:110 6:2.6 7:2.68 8:0.34 9:1.36 10:4.6 11:1.09 12:2.78 13:880 
-0.83305802687317154 1:13.05 2:1.65 3:2.55 4:18 5:98 6:2.45 7:2.43 8:0.29 9:1.44 10:4.25 11:1.12 12:2.51 13:1105 
-0.79807157048049659 1:13.07 2:1.5 3:2.1 4:15.5 5:98 6:2.4 7:2.64 8:0.28 9:1.37 10:3.7 11:1.18 12:2.69 13:1020 
-0.83333707890281095 1:14.22 2:3.99 3:2.51 4:13.2 5:128 6:3 7:3.04 8:0.2 9:2.08 10:5.1 11:0.89 12:3.53 13:760 
-0.83308988173992349 1:13.56 2:1.71 3:2.31 4:16.2 5:117 6:3.15 7:3.29 8:0.34 9:2.34 10:6.13 11:0.95 12:3.38 13:795 
-0.81823158688216513 1:13.41 2:3.84 3:2.12 4:18.8 5:90 6:2.45 7:2.68 8:0.27 9:1.48 10:4.28 11:0.91 12:3 13:1035 
-0.83300316408533881 1:13.88 2:1.89 3:2.59 4:15 5:101 6:3.25 7:3.56 8:0.17 9:1.7 10:5.43 11:0.88 12:3.56 13:1095 
-0.95084376425199002 1:13.24 2:3.98 3:2.29 4:17.5 5:103 6:2.64 7:2.63 8:0.32 9:1.66 10:4.36 11:0.82 12:3 13:680 
-0.7913247185869916 1:13.05 2:1.77 3:2.1 4:17 5:107 6:3 7:3 8:0.28 9:2.03 10:5.04 11:0.88 12:3.35 13:885 
-0.83339349181416944 1:14.21 2:4.04 3:2.44 4:18.9 5:111 6:2.85 7:2.65 8:0.3 9:1.25 10:5.24 11:0.87 12:3.33 13:1080 
-0.79328170177625124 1:14.38 2:3.59 3:2.28 4:16 5:102 6:3.25 7:3.17 8:0.27 9:2.19 10:4.9 11:1.04 12:3.44 13:1065 
-0.80174466983037573 1:13.9 2:1.68 3:2.12 4:16 5:101 6:3.1 7:3.39 8:0.21 9:2.14 10:6.1 11:0.91 12:3.33 13:985 
-0.79346311058751129 1:14.1 2:2.02 3:2.4 4:18.8 5:103 6:2.75 7:2.92 8:0.32 9:2.38 10:6.2 11:1.07 12:2.75 13:1060 
-0.83292553505829081 1:13.94 2:1.73 3:2.27 4:17.4 5:108 6:2.88 7:3.54 8:0.32 9:2.08 10:8.9 11:1.12 12:3.1 13:1260 
-0.55165703339407923 1:13.05 2:1.73 3:2.04 4:12.4 5:92 6:2.72 7:3.27 8:0.17 9:2.91 10:7.2 11:1.12 12:2.91 13:1150 
-0.83258000497694973 1:13.83 2:1.65 3:2.6 4:17.2 5:94 6:2.45 7:2.99 8:0.22 9:2.29 10:5.6 11:1.24 12:3.37 13:1265 
-0.833082944995157 1:13.82 2:1.75 3:2.42 4:14 5:111 6:3.88 7:3.74 8:0.32 9:1.87 10:7.05 11:1.01 12:3.26 13:1190 
-0.83312139332627955 1:13.77 2:1.9 3:2.68 4:17.1 5:115 6:3 7:2.79 8:0.39 9:1.68 10:6.3 11:1.13 12:2.93 13:1375 
-0.83286327347844891 1:13.74 2:1.67 3:2.25 4:16.4 5:118 6:2.6 7:2.9 8:0.21 9:1.62 10:5.85 11:0.92 12:3.2 13:1060 
-0.8329628956094931 1:13.56 2:1.73 3:2.46 4:20.5 5:116 6:2.96 7:2.78 8:0.2 9:2.45 10:6.25 11:0.98 12:3.03 13:1120 
-0.83303681449416722 1:14.22 2:1.7 3:2.3 4:16.3 5:118 6:3.2 7:3 8:0.26 9:2.03 10:6.38 11:0.94 12:3.31 13:970 
-0.83244972928610972 1:13.29 2:1.97 3:2.68 4:16.8 5:102 6:3 7:3.23 8:0.31 9:1.66 10:6 11:1.07 12:2.84 13:1270 
-0.83210661833571065 1:13.72 2:1.43 3:2.5 4:16.7 5:108 6:3.4 7:3.67 8:0.19 9:2.04 10:6.8 11:0.89 12:2.87 13:1285 
